<?xml version="1.0"?>
<opencv_storage>
<stage10>
  <maxWeakCount>7</maxWeakCount>
  <stageThreshold>-9.0585362911224365e-01</stageThreshold>
  <weakClassifiers>
    <_>
      <internalNodes>
        0 -1 26160 -6.5404854714870453e-02</internalNodes>
      <leafValues>
        2.3076923191547394e-01 -6.1403506994247437e-01</leafValues></_>
    <_>
      <internalNodes>
        0 -1 70645 -4.7477745101787150e-04</internalNodes>
      <leafValues>
        -8.6289632320404053e-01 1.1839260160923004e-01</leafValues></_>
    <_>
      <internalNodes>
        0 -1 124553 -2.0049117505550385e-02</internalNodes>
      <leafValues>
        5.1112568378448486e-01 -2.7491465210914612e-01</leafValues></_>
    <_>
      <internalNodes>
        0 -1 162099 1.3756475527770817e-04</internalNodes>
      <leafValues>
        2.4652475118637085e-01 -6.9744646549224854e-01</leafValues></_>
    <_>
      <internalNodes>
        0 -1 12281 -4.7049056738615036e-03</internalNodes>
      <leafValues>
        2.6459923386573792e-01 -5.2532255649566650e-01</leafValues></_>
    <_>
      <internalNodes>
        0 -1 60429 -4.7455532476305962e-03</internalNodes>
      <leafValues>
        -8.6654424667358398e-01 1.7173881828784943e-01</leafValues></_>
    <_>
      <internalNodes>
        0 -1 80922 7.7624915866181254e-04</internalNodes>
      <leafValues>
        2.2012376785278320e-01 -6.0886991024017334e-01</leafValues></_></weakClassifiers></stage10>
</opencv_storage>
