<?xml version="1.0"?>
<opencv_storage>
<stage4>
  <maxWeakCount>14</maxWeakCount>
  <stageThreshold>-1.8896924257278442e+00</stageThreshold>
  <weakClassifiers>
    <_>
      <internalNodes>
        0 -1 11942 -1.3608929701149464e-02</internalNodes>
      <leafValues>
        2.8070175647735596e-01 -7.3202615976333618e-01</leafValues></_>
    <_>
      <internalNodes>
        0 -1 143118 -1.1832986027002335e-02</internalNodes>
      <leafValues>
        4.5803204178810120e-01 -5.0108206272125244e-01</leafValues></_>
    <_>
      <internalNodes>
        0 -1 93552 -2.2571660578250885e-02</internalNodes>
      <leafValues>
        7.4805271625518799e-01 -3.2892540097236633e-01</leafValues></_>
    <_>
      <internalNodes>
        0 -1 22682 -5.3417967865243554e-04</internalNodes>
      <leafValues>
        5.5720561742782593e-01 -3.3537819981575012e-01</leafValues></_>
    <_>
      <internalNodes>
        0 -1 148295 3.9915411616675556e-04</internalNodes>
      <leafValues>
        2.0591968297958374e-01 -9.5206689834594727e-01</leafValues></_>
    <_>
      <internalNodes>
        0 -1 132582 -7.4427493382245302e-04</internalNodes>
      <leafValues>
        4.7205111384391785e-01 -3.5934042930603027e-01</leafValues></_>
    <_>
      <internalNodes>
        0 -1 151882 3.0246729147620499e-04</internalNodes>
      <leafValues>
        2.3020096123218536e-01 -6.3793915510177612e-01</leafValues></_>
    <_>
      <internalNodes>
        0 -1 46046 -1.7699365317821503e-01</internalNodes>
      <leafValues>
        6.7743605375289917e-01 -2.4835115671157837e-01</leafValues></_>
    <_>
      <internalNodes>
        0 -1 13375 -1.0979352518916130e-03</internalNodes>
      <leafValues>
        -8.5939967632293701e-01 2.0173349976539612e-01</leafValues></_>
    <_>
      <internalNodes>
        0 -1 86300 -4.0137703763321042e-04</internalNodes>
      <leafValues>
        4.4141694903373718e-01 -3.7877023220062256e-01</leafValues></_>
    <_>
      <internalNodes>
        0 -1 60843 -1.7609640955924988e-02</internalNodes>
      <leafValues>
        -8.3707165718078613e-01 1.6422078013420105e-01</leafValues></_>
    <_>
      <internalNodes>
        0 -1 66834 1.6937721520662308e-03</internalNodes>
      <leafValues>
        -3.1970858573913574e-01 4.8529955744743347e-01</leafValues></_>
    <_>
      <internalNodes>
        0 -1 74237 9.6339043229818344e-03</internalNodes>
      <leafValues>
        2.8923371434211731e-01 -5.2787166833877563e-01</leafValues></_>
    <_>
      <internalNodes>
        0 -1 13006 1.8124710186384618e-04</internalNodes>
      <leafValues>
        2.2258122265338898e-01 -6.4658874273300171e-01</leafValues></_></weakClassifiers></stage4>
</opencv_storage>
