<?xml version="1.0"?>
<opencv_storage>
<stage8>
  <maxWeakCount>100</maxWeakCount>
  <stageThreshold>-2.7992110252380371e+00</stageThreshold>
  <weakClassifiers>
    <_>
      <internalNodes>
        0 -1 111829 -4.1943345422623679e-05</internalNodes>
      <leafValues>
        6.9354838132858276e-01 -9.3918919563293457e-01</leafValues></_>
    <_>
      <internalNodes>
        0 -1 158996 -1.4302374329417944e-03</internalNodes>
      <leafValues>
        7.5794243812561035e-01 -7.4815469980239868e-01</leafValues></_>
    <_>
      <internalNodes>
        0 -1 64106 -4.6420097351074219e-04</internalNodes>
      <leafValues>
        8.7123793363571167e-01 -5.3862661123275757e-01</leafValues></_>
    <_>
      <internalNodes>
        0 -1 132555 -1.0262361320201308e-04</internalNodes>
      <leafValues>
        8.2133930921554565e-01 -4.0257409214973450e-01</leafValues></_>
    <_>
      <internalNodes>
        0 -1 94357 7.4715856462717056e-03</internalNodes>
      <leafValues>
        -1.7712247371673584e-01 9.2794823646545410e-01</leafValues></_>
    <_>
      <internalNodes>
        0 -1 143524 -1.4860971132293344e-03</internalNodes>
      <leafValues>
        9.8226332664489746e-01 -1.1303561925888062e-01</leafValues></_>
    <_>
      <internalNodes>
        0 -1 40827 1.1500967666506767e-02</internalNodes>
      <leafValues>
        2.4526685476303101e-01 -7.6480555534362793e-01</leafValues></_>
    <_>
      <internalNodes>
        0 -1 137645 3.1629044678993523e-04</internalNodes>
      <leafValues>
        -2.4247427284717560e-01 8.2830500602722168e-01</leafValues></_>
    <_>
      <internalNodes>
        0 -1 161169 -9.7350910073146224e-04</internalNodes>
      <leafValues>
        -8.5111093521118164e-01 1.9352655112743378e-01</leafValues></_>
    <_>
      <internalNodes>
        0 -1 154875 -4.2628563824109733e-04</internalNodes>
      <leafValues>
        7.9790061712265015e-01 -2.0712256431579590e-01</leafValues></_>
    <_>
      <internalNodes>
        0 -1 12855 5.6965036492329091e-05</internalNodes>
      <leafValues>
        1.7264290153980255e-01 -6.7969310283660889e-01</leafValues></_>
    <_>
      <internalNodes>
        0 -1 60357 5.7039018720388412e-03</internalNodes>
      <leafValues>
        -1.1274562031030655e-01 9.0312129259109497e-01</leafValues></_>
    <_>
      <internalNodes>
        0 -1 102773 -7.9340189695358276e-03</internalNodes>
      <leafValues>
        -8.9283645153045654e-01 9.6033468842506409e-02</leafValues></_>
    <_>
      <internalNodes>
        0 -1 106143 -1.2328445445746183e-03</internalNodes>
      <leafValues>
        1. -7.3067955672740936e-02</leafValues></_>
    <_>
      <internalNodes>
        0 -1 68975 1.2087901122868061e-03</internalNodes>
      <leafValues>
        -3.2615877687931061e-02 1.</leafValues></_>
    <_>
      <internalNodes>
        0 -1 116562 -8.3991885185241699e-04</internalNodes>
      <leafValues>
        -8.3653879165649414e-01 8.2575343549251556e-02</leafValues></_>
    <_>
      <internalNodes>
        0 -1 76822 2.7245967430644669e-05</internalNodes>
      <leafValues>
        -3.6212049424648285e-02 9.3437141180038452e-01</leafValues></_>
    <_>
      <internalNodes>
        0 -1 155228 6.5893218561541289e-05</internalNodes>
      <leafValues>
        4.2101390659809113e-02 -1.</leafValues></_>
    <_>
      <internalNodes>
        0 -1 69476 -3.7014595000073314e-04</internalNodes>
      <leafValues>
        1. -2.6874234899878502e-02</leafValues></_>
    <_>
      <internalNodes>
        0 -1 139535 -2.7184939244762063e-04</internalNodes>
      <leafValues>
        -1. 1.9159521907567978e-02</leafValues></_>
    <_>
      <internalNodes>
        0 -1 94644 3.5473569296300411e-03</internalNodes>
      <leafValues>
        -1.0840346105396748e-02 1.</leafValues></_>
    <_>
      <internalNodes>
        0 -1 3506 -2.6146898046135902e-02</internalNodes>
      <leafValues>
        -1. 1.8458077684044838e-02</leafValues></_>
    <_>
      <internalNodes>
        0 -1 142622 -2.2125817849882878e-05</internalNodes>
      <leafValues>
        1. -1.6703896224498749e-02</leafValues></_>
    <_>
      <internalNodes>
        0 -1 59465 -2.0253747061360627e-04</internalNodes>
      <leafValues>
        -1. 1.3573576696217060e-02</leafValues></_>
    <_>
      <internalNodes>
        0 -1 78904 -7.5194810051470995e-04</internalNodes>
      <leafValues>
        9.5070803165435791e-01 -7.7555947937071323e-03</leafValues></_>
    <_>
      <internalNodes>
        0 -1 8757 -6.6605778411030769e-03</internalNodes>
      <leafValues>
        -1. 2.5664556305855513e-03</leafValues></_>
    <_>
      <internalNodes>
        0 -1 211 -9.5946976216509938e-04</internalNodes>
      <leafValues>
        1. 5.6348459231969628e-09</leafValues></_>
    <_>
      <internalNodes>
        0 -1 211 -5.6590675376355648e-03</internalNodes>
      <leafValues>
        -1. -3.5911990442754737e-15</leafValues></_>
    <_>
      <internalNodes>
        0 -1 211 -4.8223673366010189e-03</internalNodes>
      <leafValues>
        1. -1.3541440712288022e-03</leafValues></_>
    <_>
      <internalNodes>
        0 -1 211 -5.6590675376355648e-03</internalNodes>
      <leafValues>
        -1. 1.3541432563215494e-03</leafValues></_>
    <_>
      <internalNodes>
        0 -1 211 -4.8223673366010189e-03</internalNodes>
      <leafValues>
        1. -1.3541432563215494e-03</leafValues></_>
    <_>
      <internalNodes>
        0 -1 211 -5.6590675376355648e-03</internalNodes>
      <leafValues>
        -1. 1.3541432563215494e-03</leafValues></_>
    <_>
      <internalNodes>
        0 -1 211 -4.8223673366010189e-03</internalNodes>
      <leafValues>
        1. -1.3541432563215494e-03</leafValues></_>
    <_>
      <internalNodes>
        0 -1 211 -5.6590675376355648e-03</internalNodes>
      <leafValues>
        -1. 1.3541432563215494e-03</leafValues></_>
    <_>
      <internalNodes>
        0 -1 211 -4.8223673366010189e-03</internalNodes>
      <leafValues>
        1. -1.3541432563215494e-03</leafValues></_>
    <_>
      <internalNodes>
        0 -1 211 -5.6590675376355648e-03</internalNodes>
      <leafValues>
        -1. 1.3541432563215494e-03</leafValues></_>
    <_>
      <internalNodes>
        0 -1 211 -4.8223673366010189e-03</internalNodes>
      <leafValues>
        1. -1.3541432563215494e-03</leafValues></_>
    <_>
      <internalNodes>
        0 -1 211 -5.6590675376355648e-03</internalNodes>
      <leafValues>
        -1. 1.3541432563215494e-03</leafValues></_>
    <_>
      <internalNodes>
        0 -1 211 -4.8223673366010189e-03</internalNodes>
      <leafValues>
        1. -1.3541432563215494e-03</leafValues></_>
    <_>
      <internalNodes>
        0 -1 211 -5.6590675376355648e-03</internalNodes>
      <leafValues>
        -1. 1.3541432563215494e-03</leafValues></_>
    <_>
      <internalNodes>
        0 -1 211 -4.8223673366010189e-03</internalNodes>
      <leafValues>
        1. -1.3541432563215494e-03</leafValues></_>
    <_>
      <internalNodes>
        0 -1 211 -5.6590675376355648e-03</internalNodes>
      <leafValues>
        -1. 1.3541432563215494e-03</leafValues></_>
    <_>
      <internalNodes>
        0 -1 211 -4.8223673366010189e-03</internalNodes>
      <leafValues>
        1. -1.3541432563215494e-03</leafValues></_>
    <_>
      <internalNodes>
        0 -1 211 -5.6590675376355648e-03</internalNodes>
      <leafValues>
        -1. 1.3541432563215494e-03</leafValues></_>
    <_>
      <internalNodes>
        0 -1 211 -4.8223673366010189e-03</internalNodes>
      <leafValues>
        1. -1.3541432563215494e-03</leafValues></_>
    <_>
      <internalNodes>
        0 -1 211 -5.6590675376355648e-03</internalNodes>
      <leafValues>
        -1. 1.3541432563215494e-03</leafValues></_>
    <_>
      <internalNodes>
        0 -1 211 -4.8223673366010189e-03</internalNodes>
      <leafValues>
        1. -1.3541432563215494e-03</leafValues></_>
    <_>
      <internalNodes>
        0 -1 211 -5.6590675376355648e-03</internalNodes>
      <leafValues>
        -1. 1.3541432563215494e-03</leafValues></_>
    <_>
      <internalNodes>
        0 -1 211 -4.8223673366010189e-03</internalNodes>
      <leafValues>
        1. -1.3541432563215494e-03</leafValues></_>
    <_>
      <internalNodes>
        0 -1 211 -5.6590675376355648e-03</internalNodes>
      <leafValues>
        -1. 1.3541432563215494e-03</leafValues></_>
    <_>
      <internalNodes>
        0 -1 211 -4.8223673366010189e-03</internalNodes>
      <leafValues>
        1. -1.3541432563215494e-03</leafValues></_>
    <_>
      <internalNodes>
        0 -1 211 -5.6590675376355648e-03</internalNodes>
      <leafValues>
        -1. 1.3541432563215494e-03</leafValues></_>
    <_>
      <internalNodes>
        0 -1 211 -4.8223673366010189e-03</internalNodes>
      <leafValues>
        1. -1.3541432563215494e-03</leafValues></_>
    <_>
      <internalNodes>
        0 -1 211 -5.6590675376355648e-03</internalNodes>
      <leafValues>
        -1. 1.3541432563215494e-03</leafValues></_>
    <_>
      <internalNodes>
        0 -1 211 -4.8223673366010189e-03</internalNodes>
      <leafValues>
        1. -1.3541432563215494e-03</leafValues></_>
    <_>
      <internalNodes>
        0 -1 211 -5.6590675376355648e-03</internalNodes>
      <leafValues>
        -1. 1.3541432563215494e-03</leafValues></_>
    <_>
      <internalNodes>
        0 -1 211 -4.8223673366010189e-03</internalNodes>
      <leafValues>
        1. -1.3541432563215494e-03</leafValues></_>
    <_>
      <internalNodes>
        0 -1 211 -5.6590675376355648e-03</internalNodes>
      <leafValues>
        -1. 1.3541432563215494e-03</leafValues></_>
    <_>
      <internalNodes>
        0 -1 211 -4.8223673366010189e-03</internalNodes>
      <leafValues>
        1. -1.3541432563215494e-03</leafValues></_>
    <_>
      <internalNodes>
        0 -1 211 -5.6590675376355648e-03</internalNodes>
      <leafValues>
        -1. 1.3541432563215494e-03</leafValues></_>
    <_>
      <internalNodes>
        0 -1 211 -4.8223673366010189e-03</internalNodes>
      <leafValues>
        1. -1.3541432563215494e-03</leafValues></_>
    <_>
      <internalNodes>
        0 -1 211 -5.6590675376355648e-03</internalNodes>
      <leafValues>
        -1. 1.3541432563215494e-03</leafValues></_>
    <_>
      <internalNodes>
        0 -1 211 -4.8223673366010189e-03</internalNodes>
      <leafValues>
        1. -1.3541432563215494e-03</leafValues></_>
    <_>
      <internalNodes>
        0 -1 211 -5.6590675376355648e-03</internalNodes>
      <leafValues>
        -1. 1.3541432563215494e-03</leafValues></_>
    <_>
      <internalNodes>
        0 -1 211 -4.8223673366010189e-03</internalNodes>
      <leafValues>
        1. -1.3541432563215494e-03</leafValues></_>
    <_>
      <internalNodes>
        0 -1 211 -5.6590675376355648e-03</internalNodes>
      <leafValues>
        -1. 1.3541432563215494e-03</leafValues></_>
    <_>
      <internalNodes>
        0 -1 211 -4.8223673366010189e-03</internalNodes>
      <leafValues>
        1. -1.3541432563215494e-03</leafValues></_>
    <_>
      <internalNodes>
        0 -1 211 -5.6590675376355648e-03</internalNodes>
      <leafValues>
        -1. 1.3541432563215494e-03</leafValues></_>
    <_>
      <internalNodes>
        0 -1 211 -4.8223673366010189e-03</internalNodes>
      <leafValues>
        1. -1.3541432563215494e-03</leafValues></_>
    <_>
      <internalNodes>
        0 -1 211 -5.6590675376355648e-03</internalNodes>
      <leafValues>
        -1. 1.3541432563215494e-03</leafValues></_>
    <_>
      <internalNodes>
        0 -1 211 -4.8223673366010189e-03</internalNodes>
      <leafValues>
        1. -1.3541432563215494e-03</leafValues></_>
    <_>
      <internalNodes>
        0 -1 211 -5.6590675376355648e-03</internalNodes>
      <leafValues>
        -1. 1.3541432563215494e-03</leafValues></_>
    <_>
      <internalNodes>
        0 -1 211 -4.8223673366010189e-03</internalNodes>
      <leafValues>
        1. -1.3541432563215494e-03</leafValues></_>
    <_>
      <internalNodes>
        0 -1 211 -5.6590675376355648e-03</internalNodes>
      <leafValues>
        -1. 1.3541432563215494e-03</leafValues></_>
    <_>
      <internalNodes>
        0 -1 211 -4.8223673366010189e-03</internalNodes>
      <leafValues>
        1. -1.3541432563215494e-03</leafValues></_>
    <_>
      <internalNodes>
        0 -1 211 -5.6590675376355648e-03</internalNodes>
      <leafValues>
        -1. 1.3541432563215494e-03</leafValues></_>
    <_>
      <internalNodes>
        0 -1 211 -4.8223673366010189e-03</internalNodes>
      <leafValues>
        1. -1.3541432563215494e-03</leafValues></_>
    <_>
      <internalNodes>
        0 -1 211 -5.6590675376355648e-03</internalNodes>
      <leafValues>
        -1. 1.3541432563215494e-03</leafValues></_>
    <_>
      <internalNodes>
        0 -1 211 -4.8223673366010189e-03</internalNodes>
      <leafValues>
        1. -1.3541432563215494e-03</leafValues></_>
    <_>
      <internalNodes>
        0 -1 211 -5.6590675376355648e-03</internalNodes>
      <leafValues>
        -1. 1.3541432563215494e-03</leafValues></_>
    <_>
      <internalNodes>
        0 -1 211 -4.8223673366010189e-03</internalNodes>
      <leafValues>
        1. -1.3541432563215494e-03</leafValues></_>
    <_>
      <internalNodes>
        0 -1 211 -5.6590675376355648e-03</internalNodes>
      <leafValues>
        -1. 1.3541432563215494e-03</leafValues></_>
    <_>
      <internalNodes>
        0 -1 211 -4.8223673366010189e-03</internalNodes>
      <leafValues>
        1. -1.3541432563215494e-03</leafValues></_>
    <_>
      <internalNodes>
        0 -1 211 -5.6590675376355648e-03</internalNodes>
      <leafValues>
        -1. 1.3541432563215494e-03</leafValues></_>
    <_>
      <internalNodes>
        0 -1 211 -4.8223673366010189e-03</internalNodes>
      <leafValues>
        1. -1.3541432563215494e-03</leafValues></_>
    <_>
      <internalNodes>
        0 -1 211 -5.6590675376355648e-03</internalNodes>
      <leafValues>
        -1. 1.3541432563215494e-03</leafValues></_>
    <_>
      <internalNodes>
        0 -1 211 -4.8223673366010189e-03</internalNodes>
      <leafValues>
        1. -1.3541432563215494e-03</leafValues></_>
    <_>
      <internalNodes>
        0 -1 211 -5.6590675376355648e-03</internalNodes>
      <leafValues>
        -1. 1.3541432563215494e-03</leafValues></_>
    <_>
      <internalNodes>
        0 -1 211 -4.8223673366010189e-03</internalNodes>
      <leafValues>
        1. -1.3541432563215494e-03</leafValues></_>
    <_>
      <internalNodes>
        0 -1 211 -5.6590675376355648e-03</internalNodes>
      <leafValues>
        -1. 1.3541432563215494e-03</leafValues></_>
    <_>
      <internalNodes>
        0 -1 211 -4.8223673366010189e-03</internalNodes>
      <leafValues>
        1. -1.3541432563215494e-03</leafValues></_>
    <_>
      <internalNodes>
        0 -1 211 -5.6590675376355648e-03</internalNodes>
      <leafValues>
        -1. 1.3541432563215494e-03</leafValues></_>
    <_>
      <internalNodes>
        0 -1 211 -4.8223673366010189e-03</internalNodes>
      <leafValues>
        1. -1.3541432563215494e-03</leafValues></_>
    <_>
      <internalNodes>
        0 -1 211 -5.6590675376355648e-03</internalNodes>
      <leafValues>
        -1. 1.3541432563215494e-03</leafValues></_>
    <_>
      <internalNodes>
        0 -1 211 -4.8223673366010189e-03</internalNodes>
      <leafValues>
        1. -1.3541432563215494e-03</leafValues></_>
    <_>
      <internalNodes>
        0 -1 211 -5.6590675376355648e-03</internalNodes>
      <leafValues>
        -1. 1.3541432563215494e-03</leafValues></_>
    <_>
      <internalNodes>
        0 -1 211 -4.8223673366010189e-03</internalNodes>
      <leafValues>
        1. -1.3541432563215494e-03</leafValues></_>
    <_>
      <internalNodes>
        0 -1 211 -5.6590675376355648e-03</internalNodes>
      <leafValues>
        -1. 1.3541432563215494e-03</leafValues></_>
    <_>
      <internalNodes>
        0 -1 211 -4.8223673366010189e-03</internalNodes>
      <leafValues>
        1. -1.3541432563215494e-03</leafValues></_>
    <_>
      <internalNodes>
        0 -1 211 -5.6590675376355648e-03</internalNodes>
      <leafValues>
        -1. 1.3541432563215494e-03</leafValues></_></weakClassifiers></stage8>
</opencv_storage>
