<?xml version="1.0"?>
<opencv_storage>
<stage12>
  <maxWeakCount>10</maxWeakCount>
  <stageThreshold>-1.4774857759475708e+00</stageThreshold>
  <weakClassifiers>
    <_>
      <internalNodes>
        0 -1 6264 -7.6249718666076660e-02</internalNodes>
      <leafValues>
        3.2352942228317261e-01 -6.0795456171035767e-01</leafValues></_>
    <_>
      <internalNodes>
        0 -1 142343 -1.8131285905838013e-02</internalNodes>
      <leafValues>
        1.7482924461364746e-01 -6.2298887968063354e-01</leafValues></_>
    <_>
      <internalNodes>
        0 -1 25618 -5.5609205446671695e-05</internalNodes>
      <leafValues>
        -6.2650239467620850e-01 1.9831743836402893e-01</leafValues></_>
    <_>
      <internalNodes>
        0 -1 2320 -2.5280565023422241e-02</internalNodes>
      <leafValues>
        3.4595495462417603e-01 -3.9172583818435669e-01</leafValues></_>
    <_>
      <internalNodes>
        0 -1 151290 -1.1722986819222569e-03</internalNodes>
      <leafValues>
        4.8960879445075989e-01 -2.4684578180313110e-01</leafValues></_>
    <_>
      <internalNodes>
        0 -1 143395 -1.3213248923420906e-02</internalNodes>
      <leafValues>
        5.4715824127197266e-01 -2.1094979345798492e-01</leafValues></_>
    <_>
      <internalNodes>
        0 -1 161905 -8.5455263033509254e-03</internalNodes>
      <leafValues>
        -6.0289728641510010e-01 2.2046126425266266e-01</leafValues></_>
    <_>
      <internalNodes>
        0 -1 13399 -2.9089458985254169e-04</internalNodes>
      <leafValues>
        -5.8494901657104492e-01 2.0062525570392609e-01</leafValues></_>
    <_>
      <internalNodes>
        0 -1 123458 -1.2218721210956573e-02</internalNodes>
      <leafValues>
        6.6688585281372070e-01 -2.2363957762718201e-01</leafValues></_>
    <_>
      <internalNodes>
        0 -1 13002 -1.4062656555324793e-04</internalNodes>
      <leafValues>
        -7.4214190244674683e-01 2.0721465349197388e-01</leafValues></_></weakClassifiers></stage12>
</opencv_storage>
